Language model created by QuickLM on Fri Jun 14 02:42:33 EDT 2019
Copyright (c) 1996-2010 Carnegie Mellon University and Alexander I. Rudnicky

The model is in standard ARPA format, designed by Doug Paul while he was at MITRE.

The code that was used to produce this language model is available in Open Source.
Please visit http://www.speech.cs.cmu.edu/tools/ for more information

The (fixed) discount mass is 0.5. The backoffs are computed using the ratio method.
This model based on a corpus of 113 sentences and 115 words

\data\
ngram 1=115
ngram 2=226
ngram 3=113

\1-grams:
-0.7782 </s> -0.3010
-0.7782 <s> -0.2218
-2.8312 あなたが見えてます -0.2218
-2.8312 あなたは大丈夫ですか -0.2218
-2.8312 あります -0.2218
-2.8312 いち -0.2218
-2.8312 いつ -0.2218
-2.8312 おかけさまで元気です -0.2218
-2.8312 おはようございます -0.2218
-2.8312 おもしろい -0.2218
-2.8312 おやすみなさい -0.2218
-2.8312 お元気ですか -0.2218
-2.8312 お見せしましょう -0.2218
-2.8312 お誕生日 -0.2218
-2.8312 が欲しいです -0.2218
-2.8312 きゅう -0.2218
-2.8312 くじゅう -0.2218
-2.8312 こんにちは -0.2218
-2.8312 こんにちは、みんな -0.2218
-2.8312 こんばんは -0.2218
-2.8312 ご -0.2218
-2.8312 ごじゅう -0.2218
-2.8312 さくらんぼ -0.2218
-2.8312 さようなら -0.2218
-2.8312 さん -0.2218
-2.8312 さんじゅう -0.2218
-2.8312 し -0.2218
-2.8312 しじゅう -0.2218
-2.8312 しち -0.2218
-2.8312 しちじゅう -0.2218
-2.8312 じゅう -0.2218
-2.8312 じゅさん -0.2218
-2.8312 せん -0.2218
-2.8312 そう -0.2218
-2.8312 そこ -0.2218
-2.8312 それ -0.2218
-2.8312 それら -0.2218
-2.8312 どうやって -0.2218
-2.8312 どこで -0.2218
-2.8312 なし -0.2218
-2.8312 なぜ -0.2218
-2.8312 に -0.2218
-2.8312 にじゅう -0.2218
-2.8312 はち -0.2218
-2.8312 はちじゅう -0.2218
-2.8312 ひゃく -0.2218
-2.8312 まん -0.2218
-2.8312 みかん -0.2218
-2.8312 りんご -0.2218
-2.8312 れい -0.2218
-2.8312 ろく -0.2218
-2.8312 ろくじゅう -0.2218
-2.8312 イブニング -0.2218
-2.8312 オレンジ -0.2218
-2.8312 ジュニア -0.2218
-2.8312 スイカ -0.2218
-2.8312 ネコ -0.2218
-2.8312 ハッピー -0.2218
-2.8312 バナナ -0.2218
-2.8312 メロン -0.2218
-2.8312 レモン -0.2218
-2.8312 一人 -0.2218
-2.8312 三番 -0.2218
-2.8312 上級 -0.2218
-2.8312 二番目 -0.2218
-2.8312 何してるの -0.2218
-2.8312 午前 -0.2218
-2.8312 大丈夫ですか -0.2218
-2.8312 女の子 -0.2218
-2.8312 学校 -0.2218
-2.8312 彼 -0.2218
-2.8312 彼は -0.2218
-2.8312 彼ら -0.2218
-2.8312 彼らの -0.2218
-2.8312 彼女 -0.2218
-2.8312 彼女の -0.2218
-2.8312 彼女は -0.2218
-2.8312 彼女自身 -0.2218
-2.8312 彼氏 -0.2218
-2.8312 彼自身 -0.2218
-2.8312 最初 -0.2218
-2.8312 果物 -0.2218
-2.8312 柿 -0.2218
-2.8312 桃 -0.2218
-2.8312 梅 -0.2218
-2.8312 楽しい -0.2218
-2.8312 歩く -0.2218
-2.8312 歩けますか -0.2218
-2.8312 残り -0.2218
-2.8312 犬 -0.2218
-2.8312 男の子 -0.2218
-2.8312 私たちの -0.2218
-2.8312 私たち自身 -0.2218
-2.8312 私はラウルです -0.2218
-2.8312 私は元気です -0.2218
-2.8312 第4 -0.2218
-2.8312 第8 -0.2218
-2.8312 第七 -0.2218
-2.8312 第九 -0.2218
-2.8312 第五 -0.2218
-2.8312 第六 -0.2218
-2.8312 第十 -0.2218
-2.8312 素晴らしい -0.2218
-2.8312 綺麗な -0.2218
-2.8312 自体 -0.2218
-2.8312 自分の -0.2218
-2.8312 良い一日 -0.2218
-2.8312 見せる -0.2218
-2.8312 見る -0.2218
-2.8312 誰 -0.2218
-2.8312 誰が -0.2218
-2.8312 誰の -0.2218
-2.8312 高い -0.2218
-2.8312 高校 -0.2218
-2.8312 鳥 -0.2218

\2-grams:
-2.3541 <s> あなたが見えてます 0.0000
-2.3541 <s> あなたは大丈夫ですか 0.0000
-2.3541 <s> あります 0.0000
-2.3541 <s> いち 0.0000
-2.3541 <s> いつ 0.0000
-2.3541 <s> おかけさまで元気です 0.0000
-2.3541 <s> おはようございます 0.0000
-2.3541 <s> おもしろい 0.0000
-2.3541 <s> おやすみなさい 0.0000
-2.3541 <s> お元気ですか 0.0000
-2.3541 <s> お見せしましょう 0.0000
-2.3541 <s> お誕生日 0.0000
-2.3541 <s> が欲しいです 0.0000
-2.3541 <s> きゅう 0.0000
-2.3541 <s> くじゅう 0.0000
-2.3541 <s> こんにちは 0.0000
-2.3541 <s> こんにちは、みんな 0.0000
-2.3541 <s> こんばんは 0.0000
-2.3541 <s> ご 0.0000
-2.3541 <s> ごじゅう 0.0000
-2.3541 <s> さくらんぼ 0.0000
-2.3541 <s> さようなら 0.0000
-2.3541 <s> さん 0.0000
-2.3541 <s> さんじゅう 0.0000
-2.3541 <s> し 0.0000
-2.3541 <s> しじゅう 0.0000
-2.3541 <s> しち 0.0000
-2.3541 <s> しちじゅう 0.0000
-2.3541 <s> じゅう 0.0000
-2.3541 <s> じゅさん 0.0000
-2.3541 <s> せん 0.0000
-2.3541 <s> そう 0.0000
-2.3541 <s> そこ 0.0000
-2.3541 <s> それ 0.0000
-2.3541 <s> それら 0.0000
-2.3541 <s> どうやって 0.0000
-2.3541 <s> どこで 0.0000
-2.3541 <s> なし 0.0000
-2.3541 <s> なぜ 0.0000
-2.3541 <s> に 0.0000
-2.3541 <s> にじゅう 0.0000
-2.3541 <s> はち 0.0000
-2.3541 <s> はちじゅう 0.0000
-2.3541 <s> ひゃく 0.0000
-2.3541 <s> まん 0.0000
-2.3541 <s> みかん 0.0000
-2.3541 <s> りんご 0.0000
-2.3541 <s> れい 0.0000
-2.3541 <s> ろく 0.0000
-2.3541 <s> ろくじゅう 0.0000
-2.3541 <s> イブニング 0.0000
-2.3541 <s> オレンジ 0.0000
-2.3541 <s> ジュニア 0.0000
-2.3541 <s> スイカ 0.0000
-2.3541 <s> ネコ 0.0000
-2.3541 <s> ハッピー 0.0000
-2.3541 <s> バナナ 0.0000
-2.3541 <s> メロン 0.0000
-2.3541 <s> レモン 0.0000
-2.3541 <s> 一人 0.0000
-2.3541 <s> 三番 0.0000
-2.3541 <s> 上級 0.0000
-2.3541 <s> 二番目 0.0000
-2.3541 <s> 何してるの 0.0000
-2.3541 <s> 午前 0.0000
-2.3541 <s> 大丈夫ですか 0.0000
-2.3541 <s> 女の子 0.0000
-2.3541 <s> 学校 0.0000
-2.3541 <s> 彼 0.0000
-2.3541 <s> 彼は 0.0000
-2.3541 <s> 彼ら 0.0000
-2.3541 <s> 彼らの 0.0000
-2.3541 <s> 彼女 0.0000
-2.3541 <s> 彼女の 0.0000
-2.3541 <s> 彼女は 0.0000
-2.3541 <s> 彼女自身 0.0000
-2.3541 <s> 彼氏 0.0000
-2.3541 <s> 彼自身 0.0000
-2.3541 <s> 最初 0.0000
-2.3541 <s> 果物 0.0000
-2.3541 <s> 柿 0.0000
-2.3541 <s> 桃 0.0000
-2.3541 <s> 梅 0.0000
-2.3541 <s> 楽しい 0.0000
-2.3541 <s> 歩く 0.0000
-2.3541 <s> 歩けますか 0.0000
-2.3541 <s> 残り 0.0000
-2.3541 <s> 犬 0.0000
-2.3541 <s> 男の子 0.0000
-2.3541 <s> 私たちの 0.0000
-2.3541 <s> 私たち自身 0.0000
-2.3541 <s> 私はラウルです 0.0000
-2.3541 <s> 私は元気です 0.0000
-2.3541 <s> 第4 0.0000
-2.3541 <s> 第8 0.0000
-2.3541 <s> 第七 0.0000
-2.3541 <s> 第九 0.0000
-2.3541 <s> 第五 0.0000
-2.3541 <s> 第六 0.0000
-2.3541 <s> 第十 0.0000
-2.3541 <s> 素晴らしい 0.0000
-2.3541 <s> 綺麗な 0.0000
-2.3541 <s> 自体 0.0000
-2.3541 <s> 自分の 0.0000
-2.3541 <s> 良い一日 0.0000
-2.3541 <s> 見せる 0.0000
-2.3541 <s> 見る 0.0000
-2.3541 <s> 誰 0.0000
-2.3541 <s> 誰が 0.0000
-2.3541 <s> 誰の 0.0000
-2.3541 <s> 高い 0.0000
-2.3541 <s> 高校 0.0000
-2.3541 <s> 鳥 0.0000
-0.3010 あなたが見えてます </s> -0.3010
-0.3010 あなたは大丈夫ですか </s> -0.3010
-0.3010 あります </s> -0.3010
-0.3010 いち </s> -0.3010
-0.3010 いつ </s> -0.3010
-0.3010 おかけさまで元気です </s> -0.3010
-0.3010 おはようございます </s> -0.3010
-0.3010 おもしろい </s> -0.3010
-0.3010 おやすみなさい </s> -0.3010
-0.3010 お元気ですか </s> -0.3010
-0.3010 お見せしましょう </s> -0.3010
-0.3010 お誕生日 </s> -0.3010
-0.3010 が欲しいです </s> -0.3010
-0.3010 きゅう </s> -0.3010
-0.3010 くじゅう </s> -0.3010
-0.3010 こんにちは </s> -0.3010
-0.3010 こんにちは、みんな </s> -0.3010
-0.3010 こんばんは </s> -0.3010
-0.3010 ご </s> -0.3010
-0.3010 ごじゅう </s> -0.3010
-0.3010 さくらんぼ </s> -0.3010
-0.3010 さようなら </s> -0.3010
-0.3010 さん </s> -0.3010
-0.3010 さんじゅう </s> -0.3010
-0.3010 し </s> -0.3010
-0.3010 しじゅう </s> -0.3010
-0.3010 しち </s> -0.3010
-0.3010 しちじゅう </s> -0.3010
-0.3010 じゅう </s> -0.3010
-0.3010 じゅさん </s> -0.3010
-0.3010 せん </s> -0.3010
-0.3010 そう </s> -0.3010
-0.3010 そこ </s> -0.3010
-0.3010 それ </s> -0.3010
-0.3010 それら </s> -0.3010
-0.3010 どうやって </s> -0.3010
-0.3010 どこで </s> -0.3010
-0.3010 なし </s> -0.3010
-0.3010 なぜ </s> -0.3010
-0.3010 に </s> -0.3010
-0.3010 にじゅう </s> -0.3010
-0.3010 はち </s> -0.3010
-0.3010 はちじゅう </s> -0.3010
-0.3010 ひゃく </s> -0.3010
-0.3010 まん </s> -0.3010
-0.3010 みかん </s> -0.3010
-0.3010 りんご </s> -0.3010
-0.3010 れい </s> -0.3010
-0.3010 ろく </s> -0.3010
-0.3010 ろくじゅう </s> -0.3010
-0.3010 イブニング </s> -0.3010
-0.3010 オレンジ </s> -0.3010
-0.3010 ジュニア </s> -0.3010
-0.3010 スイカ </s> -0.3010
-0.3010 ネコ </s> -0.3010
-0.3010 ハッピー </s> -0.3010
-0.3010 バナナ </s> -0.3010
-0.3010 メロン </s> -0.3010
-0.3010 レモン </s> -0.3010
-0.3010 一人 </s> -0.3010
-0.3010 三番 </s> -0.3010
-0.3010 上級 </s> -0.3010
-0.3010 二番目 </s> -0.3010
-0.3010 何してるの </s> -0.3010
-0.3010 午前 </s> -0.3010
-0.3010 大丈夫ですか </s> -0.3010
-0.3010 女の子 </s> -0.3010
-0.3010 学校 </s> -0.3010
-0.3010 彼 </s> -0.3010
-0.3010 彼は </s> -0.3010
-0.3010 彼ら </s> -0.3010
-0.3010 彼らの </s> -0.3010
-0.3010 彼女 </s> -0.3010
-0.3010 彼女の </s> -0.3010
-0.3010 彼女は </s> -0.3010
-0.3010 彼女自身 </s> -0.3010
-0.3010 彼氏 </s> -0.3010
-0.3010 彼自身 </s> -0.3010
-0.3010 最初 </s> -0.3010
-0.3010 果物 </s> -0.3010
-0.3010 柿 </s> -0.3010
-0.3010 桃 </s> -0.3010
-0.3010 梅 </s> -0.3010
-0.3010 楽しい </s> -0.3010
-0.3010 歩く </s> -0.3010
-0.3010 歩けますか </s> -0.3010
-0.3010 残り </s> -0.3010
-0.3010 犬 </s> -0.3010
-0.3010 男の子 </s> -0.3010
-0.3010 私たちの </s> -0.3010
-0.3010 私たち自身 </s> -0.3010
-0.3010 私はラウルです </s> -0.3010
-0.3010 私は元気です </s> -0.3010
-0.3010 第4 </s> -0.3010
-0.3010 第8 </s> -0.3010
-0.3010 第七 </s> -0.3010
-0.3010 第九 </s> -0.3010
-0.3010 第五 </s> -0.3010
-0.3010 第六 </s> -0.3010
-0.3010 第十 </s> -0.3010
-0.3010 素晴らしい </s> -0.3010
-0.3010 綺麗な </s> -0.3010
-0.3010 自体 </s> -0.3010
-0.3010 自分の </s> -0.3010
-0.3010 良い一日 </s> -0.3010
-0.3010 見せる </s> -0.3010
-0.3010 見る </s> -0.3010
-0.3010 誰 </s> -0.3010
-0.3010 誰が </s> -0.3010
-0.3010 誰の </s> -0.3010
-0.3010 高い </s> -0.3010
-0.3010 高校 </s> -0.3010
-0.3010 鳥 </s> -0.3010

\3-grams:
-0.3010 <s> あなたが見えてます </s>
-0.3010 <s> あなたは大丈夫ですか </s>
-0.3010 <s> あります </s>
-0.3010 <s> いち </s>
-0.3010 <s> いつ </s>
-0.3010 <s> おかけさまで元気です </s>
-0.3010 <s> おはようございます </s>
-0.3010 <s> おもしろい </s>
-0.3010 <s> おやすみなさい </s>
-0.3010 <s> お元気ですか </s>
-0.3010 <s> お見せしましょう </s>
-0.3010 <s> お誕生日 </s>
-0.3010 <s> が欲しいです </s>
-0.3010 <s> きゅう </s>
-0.3010 <s> くじゅう </s>
-0.3010 <s> こんにちは </s>
-0.3010 <s> こんにちは、みんな </s>
-0.3010 <s> こんばんは </s>
-0.3010 <s> ご </s>
-0.3010 <s> ごじゅう </s>
-0.3010 <s> さくらんぼ </s>
-0.3010 <s> さようなら </s>
-0.3010 <s> さん </s>
-0.3010 <s> さんじゅう </s>
-0.3010 <s> し </s>
-0.3010 <s> しじゅう </s>
-0.3010 <s> しち </s>
-0.3010 <s> しちじゅう </s>
-0.3010 <s> じゅう </s>
-0.3010 <s> じゅさん </s>
-0.3010 <s> せん </s>
-0.3010 <s> そう </s>
-0.3010 <s> そこ </s>
-0.3010 <s> それ </s>
-0.3010 <s> それら </s>
-0.3010 <s> どうやって </s>
-0.3010 <s> どこで </s>
-0.3010 <s> なし </s>
-0.3010 <s> なぜ </s>
-0.3010 <s> に </s>
-0.3010 <s> にじゅう </s>
-0.3010 <s> はち </s>
-0.3010 <s> はちじゅう </s>
-0.3010 <s> ひゃく </s>
-0.3010 <s> まん </s>
-0.3010 <s> みかん </s>
-0.3010 <s> りんご </s>
-0.3010 <s> れい </s>
-0.3010 <s> ろく </s>
-0.3010 <s> ろくじゅう </s>
-0.3010 <s> イブニング </s>
-0.3010 <s> オレンジ </s>
-0.3010 <s> ジュニア </s>
-0.3010 <s> スイカ </s>
-0.3010 <s> ネコ </s>
-0.3010 <s> ハッピー </s>
-0.3010 <s> バナナ </s>
-0.3010 <s> メロン </s>
-0.3010 <s> レモン </s>
-0.3010 <s> 一人 </s>
-0.3010 <s> 三番 </s>
-0.3010 <s> 上級 </s>
-0.3010 <s> 二番目 </s>
-0.3010 <s> 何してるの </s>
-0.3010 <s> 午前 </s>
-0.3010 <s> 大丈夫ですか </s>
-0.3010 <s> 女の子 </s>
-0.3010 <s> 学校 </s>
-0.3010 <s> 彼 </s>
-0.3010 <s> 彼は </s>
-0.3010 <s> 彼ら </s>
-0.3010 <s> 彼らの </s>
-0.3010 <s> 彼女 </s>
-0.3010 <s> 彼女の </s>
-0.3010 <s> 彼女は </s>
-0.3010 <s> 彼女自身 </s>
-0.3010 <s> 彼氏 </s>
-0.3010 <s> 彼自身 </s>
-0.3010 <s> 最初 </s>
-0.3010 <s> 果物 </s>
-0.3010 <s> 柿 </s>
-0.3010 <s> 桃 </s>
-0.3010 <s> 梅 </s>
-0.3010 <s> 楽しい </s>
-0.3010 <s> 歩く </s>
-0.3010 <s> 歩けますか </s>
-0.3010 <s> 残り </s>
-0.3010 <s> 犬 </s>
-0.3010 <s> 男の子 </s>
-0.3010 <s> 私たちの </s>
-0.3010 <s> 私たち自身 </s>
-0.3010 <s> 私はラウルです </s>
-0.3010 <s> 私は元気です </s>
-0.3010 <s> 第4 </s>
-0.3010 <s> 第8 </s>
-0.3010 <s> 第七 </s>
-0.3010 <s> 第九 </s>
-0.3010 <s> 第五 </s>
-0.3010 <s> 第六 </s>
-0.3010 <s> 第十 </s>
-0.3010 <s> 素晴らしい </s>
-0.3010 <s> 綺麗な </s>
-0.3010 <s> 自体 </s>
-0.3010 <s> 自分の </s>
-0.3010 <s> 良い一日 </s>
-0.3010 <s> 見せる </s>
-0.3010 <s> 見る </s>
-0.3010 <s> 誰 </s>
-0.3010 <s> 誰が </s>
-0.3010 <s> 誰の </s>
-0.3010 <s> 高い </s>
-0.3010 <s> 高校 </s>
-0.3010 <s> 鳥 </s>

\end\
